[0.14397862093894617,-14.20164128904747,-0.012588426328259697,-0.015339914997173201,-0.12010033246711826,0.03710719256108041,-3.534915258157377,0.05449274374865613,0.01086944445477371,-0.07316322983082515,-0.14809264405522887,-0.6345275636271243,-0.07628567709852296,0.05268162435371469,-0.08721394873820931,-0.08179546900419407,-1.1865791003006394,0.06874553101917104,0.03606581960863525,-0.018903563957523316,-4.899703146016866,0.024982374487809197,-3.364846344988579,0.2882139144897566,2.8531672676303925,1.4520797621657076,-1.7333428771505242,-0.7269859202295241,1.4829870894869563,1.6356531032039727,-2.8379445207765372,-0.6856907533129883,-2.2351892155988136,0.841064745828737,0.2760410284892826,-8.028475720437592,-1.8458922048810371,0.7264472720921087,-0.17700806478876763,1.5993534736385528,-1.9524508146335982,-1.836420114953277,2.654608988330901,0.8863451000052585,-3.708598183719986,5.360933672432739,-0.9918329143098626,-2.667184048380203,-3.920186215639565,-5.679922575872949,-4.40208524777104,-4.325027946677502,-5.053602688446106,2.0450369383859135,5.208889746191314,-11.131003753548544,-2.9781949440596085,-1.3304023408179206,4.142692817373,6.249219905366735,3.910050069711859,0.39267066207221174,1.0181056542615414,-1.0051836587492948,-3.283618709054188,-4.066401890742672,-0.1871383480283233,0.028849577072751702,-2.5321594041353874,1.3448617717062266,-3.214503264123521,0.3901736276072298,-2.154846404192112,2.4101123459701137,0.8227472506760678,-2.6556830310638184,0.8719733861570991,0.4768085550060718,-0.14858790179105136,1.4030335951964477,-6.39548732352415,-2.7543588287706413,-5.4081997045898405,1.7363096653609575,1.7129383509751719,-53.290316574100345,-4.233688064866594,-1.689826153984743,0.2201749996367246,-1.2499552179619202,0.27831922361462935,-0.5452898640630983,-2.7250455452814686,-1.024627970155846,-0.5854965960730218,-1.3315214767057697,0.3648742307851556,2.6995926470798564,-0.059036190940363706,-1.5215962929770805,5.748672020460851,-0.11428249138262542,3.8645753557557003,0.168352012654934,-0.38401931175087073,-4.5718588753783305,2.860218457514482,0.7916849655833303,0.7534896877098936,1.5523727772553861,0.3130228602940233,0.9065965009349428,-0.016814439027108486,-1.3255407778235602,-1.4318927711084544,8.981808898483443,0.278470366662863,-2.3452040110993027,-3.2535220097248123,-6.3547021349553034,1.2172861741241867,3.9994878059568113,-2.6635254225640304,0.43219581382628547,-2.6034574519085236,-2.532813400060138,0.7096191728880448,-0.19581843403616833,0.6330089420431135,-1.0631312726180222,0.4590427381513966,-1.2204192609228433,0.015444745946416802,2.3246083911861306,0.9083615747348768,0.5495951678582316,0.15686581547403267,-1.252751717245662,1.62132897711189,-0.8814027736463284,1.1328649683864018,1.8498269695501057,-3.6595158416949065,1.4882022223811995,-0.3703780782559161,-1.3484772773204043,2.1125245749640484,-2.0805047674572914,1.7128648009525136,-1.2337054945550174,0.03700815663132992,-1.0027217581154353,2.290314656804799,-1.7043340559849396,-0.34428246710137117,-0.5414157854948206,-1.539357068818543,0.5819795419292433,-1.5349905354367859,0.32079408830906203,-1.248078048266461,-2.828363108449213,-1.1875239764598182,0.30902096032789245,1.6407300391041841,1.8774421212168964,-0.004848245011478006,0.08637716978666794,-1.1925023525585083,-0.2510879389667298,-1.2316569169919622,-0.3231779160914141,1.3184670117886699,-0.1411192360783603,-0.4311671033419484,0.7658592045740228,0.6820036476511451,0.0472723550547242,-0.019826107917829475,0.3704198254120665,0.6808620249760973,-0.4024760596546519,-1.5794832349887342,1.2003144365981522,0.6538605707505797,0.5453644962667137,0.7240660822724394,-1.1422211980686467,0.6792908582875729,-0.8400226397702708,1.9379522366768043,3.8472862735450892,-3.2093611818091,1.0245348888027541,-1.783524725379704,-2.495971923164577,2.4745509460101744,-1.7545368020224141,2.1260721832770613,-1.3364201994727498,-3.724029032309478,-3.8996525948233196,-2.979802414899002,-3.4696472600811563,3.7365514224375445,4.442986072722611,-3.475788769904555,3.1988338928834397,-2.9157669526434207,3.8280583283250142,-0.987019433145891,-6.611829423873458,2.2166056498470477,-2.5614103608486958,3.6027320633329603,4.627798011388174,-4.168479873460926,2.413361586941891,-2.123639610422573,1.7587655428374942,-0.8496239610554344,1.6259729530571319,-2.2303136885008326,1.5449202872117018,5.859159824355197,-6.150543190535315,-2.4396167342824917,3.0799321229857832,2.2936054893014988,-2.805995180177767,2.9043082585643782,-3.180259550326726,-0.8863998282222991,0.879994091555006,1.399248857720938,-2.1192853802013496,-2.4694736447559005,1.9475640250918114,1.8355630141611554,-0.5505255019722095]