[0.14197862093894617,-14.20164128904747,-0.008588426328259693,-0.015339914997173201,-0.10610033246711825,0.04910719256108042,-3.536915258157377,0.05449274374865613,0.008869444454773709,-0.07516322983082516,-0.15009264405522887,-0.6345275636271243,-0.07028567709852296,0.05268162435371469,-0.0752139487382093,-0.1077954690041941,-1.1865791003006394,0.06874553101917104,0.03206581960863525,-0.014903563957523312,-4.863703146016854,0.020982374487809194,-3.35484634498858,0.3002139144897566,2.949167267630382,1.4320797621657098,-1.7093428771505268,-0.7449859202295241,1.5569870894869482,1.7216531032039633,-2.8699445207765337,-0.4996907533129882,-2.1831892155988193,0.851064745828737,0.24404102848928255,-7.858475720437561,-1.8338922048810384,0.8004472720921088,-0.20900806478876766,1.5633534736385568,-1.954450814633598,-1.81042011495328,2.6706089883308994,0.9083451000052585,-3.708598183719986,5.286933672432714,-0.9558329143098626,-2.6731840483802025,-3.9361862156395633,-5.689922575872952,-4.378085247771032,-4.545027946677576,-5.2496026884461715,2.033036938385915,5.19688974619131,-11.095003753548564,-3.0441949440596012,-1.3064023408179233,4.132692817372996,6.201219905366719,3.866050069711864,0.41667066207221176,0.9981056542615434,-0.9651836587492953,-3.3156187090541844,-4.104401890742685,-0.1911383480283233,0.08684957707275175,-2.5481594041353857,1.3208617717062292,-3.196503264123523,0.4121736276072298,-2.136846404192114,2.398112345970115,0.8827472506760679,-2.695683031063814,0.9139733861570991,0.4748085550060718,-0.10658790179105132,1.427033595196445,-6.4274873235241605,-2.568358828770662,-5.354199704589822,1.7483096653609562,1.6809383509751754,-53.534316574099776,-4.231688064866593,-1.6158261539847512,0.19417499963672458,-1.2839552179619165,0.25631922361462933,-0.6112898640630984,-2.8050455452814598,-1.1146279701558361,-0.5654965960730218,-1.311521476705772,0.44087423078515564,2.7515926470798506,-0.027036190940363677,-1.5095962929770819,5.7266720204608434,-0.10428249138262541,3.8345753557557036,0.20035201265493402,-0.39001931175087073,-4.573858875378331,2.870218457514481,0.8136849655833304,0.7634896877098936,1.5403727772553875,0.3030228602940233,1.0345965009349392,0.02318556097289154,-1.3115407778235617,-1.4698927711084502,8.84380889848352,0.33447036666286306,-2.259204011099312,-3.293522009724808,-6.394702134955317,1.18728617412419,3.985487805956813,-2.57552542256404,0.40419581382628544,-2.5854574519085256,-2.502813400060141,0.6816191728880447,-0.1718184340361683,0.6090089420431135,-1.0211312726180268,0.4510427381513966,-1.268419260922838,0.005444745946416796,2.3246083911861306,0.9703615747348768,0.6035951678582316,0.16086581547403267,-1.2467517172456626,1.6193289771118902,-0.8674027736463283,1.1328649683864018,1.8358269695501073,-3.6695158416949054,1.4902022223811993,-0.3183780782559161,-1.314477277320408,2.1025245749640495,-2.074504767457292,1.7148648009525134,-1.2237054945550185,-0.016991843368670115,-1.0367217581154315,2.362314656804791,-1.754334055984934,-0.2962824671013711,-0.49141578549482057,-1.5973570688185366,0.6419795419292433,-1.5949905354367793,0.3727940883090621,-1.2260780482664635,-2.8543631084492103,-1.2135239764598154,0.3390209603278925,1.6827300391041795,1.9274421212168908,0.029151754988522013,0.04837716978666791,-1.1565023525585123,-0.28108793896672984,-1.1856569169919673,-0.3091779160914141,1.2644670117886758,-0.09111923607836026,-0.45316710334194843,0.7478592045740228,0.7240036476511451,0.0012723550547241646,0.02417389208217055,0.32641982541206643,0.6448620249760972,-0.45847605965465194,-1.6034832349887316,1.1643144365981561,0.7338605707505798,0.6153644962667137,0.6960660822724394,-1.1082211980686505,0.6512908582875728,-0.7980226397702708,1.967952236676801,3.821286273545092,-3.2093611818091,1.0505348888027513,-1.7455247253797082,-2.453971923164582,2.5205509460101694,-1.7845368020224108,2.164072183277057,-1.362420199472747,-3.7740290323094725,-3.9936525948233093,-2.9958024148990003,-3.5036472600811526,3.842551422437533,4.548986072722647,-3.5077887699045514,3.222833892883437,-2.9357669526434185,3.8800583283250085,-1.0050194331458904,-6.631829423873465,2.1826056498470514,-2.579410360848694,3.6747320633329523,4.709798011388202,-4.158479873460923,2.4273615869418896,-2.1316396104225723,1.7667655428374933,-0.8096239610554343,1.5939729530571354,-2.1923136885008367,1.516920287211705,5.969159824355234,-6.2645431905353535,-2.417616734282494,3.0599321229857854,2.3496054893014926,-2.86999518017776,2.968308258564371,-3.252259550326718,-0.8783998282222991,0.865994091555006,1.4472488577209328,-2.161285380201345,-2.445473644755903,1.9255640250918138,1.875563014161151,-0.5945255019722095]