[-0.5747152468324238,-0.41639838693188347,0.026549690277479124,0.0111654011682445,-0.018700471247500725,0.02884113470122307,-0.0072561964666728734,-0.3644547742721882,0.02594301399306532,0.028367660335436043,-0.02700678357966551,-0.1471873867301211,-0.5163222521749886,-0.16050486177257484,0.024854385793979437,0.18332478096732996,1.1433433922299843,0.011136011075013087,0.026174005649041134,0.040146005750142814,-1.0558816377896216,1.2047296192396098,-0.015355356618182617,-0.05056231314370514,0.06272309270544155,-0.01121109595625245,0.03908016938272884,1.3306461193516936,-0.010325599572679763,0.04294569440556,0.010949515906511435,0.4583007144765465,0.7514930970900193,-1.0245412386261559,0.018203494669033052,0.3229009154311848,-0.9195602784967798,0.03204382667049944,0.026366786123238,-0.004368066909242554,0.9907167965404289,-0.565473928091801,-0.5594747457239198,-0.5369539576940939,1.8800289907804881,-1.6006264695653178,7.536367171417538,-7.565775771040419,-0.046234165328757584,0.6393436641325914,-1.8648996265611515,1.984647755229535,2.9802571699783647,-2.963587973094734,0.057049394122907035,-0.25004486607203275,-2.436643030313727,2.350912003421213,-1.5401576915371549,1.072910624708745,3.1261609653186153,-3.0963023158184755,0.7152708253004911,0.34039731958750674,-0.729981855571071,0.5840925019437837,1.3623195161798203,-1.4243810135487844,4.4060916435583515,-4.602246529637245,0.3908850594641107,0.2102995655594866,-0.7760307750482192,0.9577420725582763,2.0978292092097774,-2.139607709697888,2.7380043649635564,-2.790601398924116,1.562208696075658,-1.79445043772909]